Language model created by QuickLM on Wed Jun 29 15:47:28 EDT 2022
Copyright (c) 1996-2010 Carnegie Mellon University and Alexander I. Rudnicky

The model is in standard ARPA format, designed by Doug Paul while he was at MITRE.

The code that was used to produce this language model is available in Open Source.
Please visit http://www.speech.cs.cmu.edu/tools/ for more information

The (fixed) discount mass is 0.5. The backoffs are computed using the ratio method.
This model based on a corpus of 88 sentences and 51 words

\data\
ngram 1=51
ngram 2=137
ngram 3=131

\1-grams:
-0.8451 </s> -0.3010
-0.8451 <s> -0.1999
-2.4886 ACCESS -0.2341
-2.4886 ADOBE -0.2341
-2.4886 AMAZON -0.2341
-2.4886 BRAVE -0.2341
-1.1561 CLOSE -0.1608
-2.4886 COMMAND -0.2996
-2.4886 COMPLIER -0.2341
-2.4886 CONTROLPANEL -0.2341
-2.4886 CURSA -0.2341
-2.4886 DRIVE -0.2341
-2.4886 EDGE -0.2341
-2.4886 EXCEL -0.2341
-2.4886 EXPLORER -0.2341
-2.4886 FACEBOOK -0.2341
-2.7896 FILPKART -0.2341
-2.7896 FLIPKART -0.2341
-2.4886 GMAIL -0.2341
-2.4886 GOOGLE -0.2341
-2.4886 INSTAGRAM -0.2341
-2.4886 INTRO -0.2341
-2.4886 MAPS -0.2341
-2.4886 MATH -0.2341
-2.4886 MYACCOUNTGOOGLE -0.2341
-2.7896 NHCE -0.2341
-2.4886 NOTEPAD -0.2341
-2.4886 OFFICE -0.2341
-2.4886 ONENOTE -0.2341
-2.7896 OPEN -0.2341
-2.4886 OUTLOOK -0.2341
-2.4886 PAINT -0.2341
-2.4886 PHOTOS -0.2341
-2.4886 PLAYER -0.2341
-2.4886 POWERPOINT -0.2341
-2.4886 PROMPT -0.2341
-2.4886 PUBLISHER -0.2341
-2.4886 RECORDER -0.2341
-2.7896 RESTART -0.2341
-2.4886 SETTINGS -0.2341
-2.7896 SHUTDOWN -0.2341
-2.7896 SITE -0.2341
-2.4886 SKYPE -0.2341
-2.4886 TASKMANAGER -0.2341
-2.4886 UDEMY -0.2341
-2.4886 WEATHER -0.2341
-2.4886 WEBWHATSAPP -0.2341
-2.4886 WORD -0.2341
-2.4886 WORDPAD -0.2341
-2.4886 YOUTUBE -0.2341
-2.4886 ZOOM -0.2341

\2-grams:
-2.2455 <s> ACCESS 0.0000
-2.2455 <s> ADOBE 0.0000
-2.2455 <s> AMAZON 0.0000
-2.2455 <s> BRAVE 0.0000
-0.6120 <s> CLOSE 0.0000
-2.2455 <s> COMMAND 0.0000
-2.2455 <s> COMPLIER 0.0000
-2.2455 <s> CONTROLPANEL 0.0000
-2.2455 <s> CURSA 0.0000
-2.2455 <s> DRIVE 0.0000
-2.2455 <s> EDGE 0.0000
-2.2455 <s> EXCEL 0.0000
-2.2455 <s> EXPLORER 0.0000
-2.2455 <s> FACEBOOK 0.0000
-2.2455 <s> FLIPKART 0.0000
-2.2455 <s> GMAIL 0.0000
-2.2455 <s> GOOGLE 0.0000
-2.2455 <s> INSTAGRAM 0.0000
-2.2455 <s> INTRO 0.0000
-2.2455 <s> MAPS 0.0000
-2.2455 <s> MATH 0.0000
-2.2455 <s> MYACCOUNTGOOGLE 0.0000
-2.2455 <s> NHCE 0.0000
-2.2455 <s> NOTEPAD 0.0000
-2.2455 <s> OFFICE 0.0000
-2.2455 <s> ONENOTE 0.0000
-2.2455 <s> OPEN 0.0000
-2.2455 <s> OUTLOOK 0.0000
-2.2455 <s> PAINT 0.0000
-2.2455 <s> PHOTOS 0.0000
-2.2455 <s> PLAYER 0.0000
-2.2455 <s> POWERPOINT 0.0000
-2.2455 <s> PUBLISHER 0.0000
-2.2455 <s> RECORDER 0.0000
-2.2455 <s> RESTART 0.0000
-2.2455 <s> SETTINGS 0.0000
-2.2455 <s> SHUTDOWN 0.0000
-2.2455 <s> SKYPE 0.0000
-2.2455 <s> TASKMANAGER 0.0000
-2.2455 <s> UDEMY 0.0000
-2.2455 <s> WEATHER 0.0000
-2.2455 <s> WEBWHATSAPP 0.0000
-2.2455 <s> WORD 0.0000
-2.2455 <s> WORDPAD 0.0000
-2.2455 <s> YOUTUBE 0.0000
-2.2455 <s> ZOOM 0.0000
-0.3010 ACCESS </s> -0.3010
-0.3010 ADOBE </s> -0.3010
-0.3010 AMAZON </s> -0.3010
-0.3010 BRAVE </s> -0.3010
-1.9345 CLOSE </s> -0.3010
-1.9345 CLOSE ACCESS 0.0000
-1.9345 CLOSE ADOBE 0.0000
-1.9345 CLOSE AMAZON 0.0000
-1.9345 CLOSE BRAVE 0.0000
-1.9345 CLOSE COMMAND 0.0000
-1.9345 CLOSE COMPLIER 0.0000
-1.9345 CLOSE CONTROLPANEL 0.0000
-1.9345 CLOSE CURSA 0.0000
-1.9345 CLOSE DRIVE 0.0000
-1.9345 CLOSE EDGE 0.0000
-1.9345 CLOSE EXCEL 0.0000
-1.9345 CLOSE EXPLORER 0.0000
-1.9345 CLOSE FACEBOOK 0.0000
-1.9345 CLOSE FILPKART 0.0000
-1.9345 CLOSE GMAIL 0.0000
-1.9345 CLOSE GOOGLE 0.0000
-1.9345 CLOSE INSTAGRAM 0.0000
-1.9345 CLOSE INTRO 0.0000
-1.9345 CLOSE MAPS 0.0000
-1.9345 CLOSE MATH 0.0000
-1.9345 CLOSE MYACCOUNTGOOGLE 0.0000
-1.9345 CLOSE NOTEPAD 0.0000
-1.9345 CLOSE OFFICE 0.0000
-1.9345 CLOSE ONENOTE 0.0000
-1.9345 CLOSE OUTLOOK 0.0000
-1.9345 CLOSE PAINT 0.0000
-1.9345 CLOSE PHOTOS 0.0000
-1.9345 CLOSE PLAYER 0.0000
-1.9345 CLOSE POWERPOINT 0.0000
-1.9345 CLOSE PUBLISHER 0.0000
-1.9345 CLOSE RECORDER 0.0000
-1.9345 CLOSE SETTINGS 0.0000
-1.9345 CLOSE SITE 0.0000
-1.9345 CLOSE SKYPE 0.0000
-1.9345 CLOSE TASKMANAGER 0.0000
-1.9345 CLOSE UDEMY 0.0000
-1.9345 CLOSE WEATHER 0.0000
-1.9345 CLOSE WEBWHATSAPP 0.0000
-1.9345 CLOSE WORD 0.0000
-1.9345 CLOSE WORDPAD 0.0000
-1.9345 CLOSE YOUTUBE 0.0000
-1.9345 CLOSE ZOOM 0.0000
-0.3010 COMMAND PROMPT 0.0000
-0.3010 COMPLIER </s> -0.3010
-0.3010 CONTROLPANEL </s> -0.3010
-0.3010 CURSA </s> -0.3010
-0.3010 DRIVE </s> -0.3010
-0.3010 EDGE </s> -0.3010
-0.3010 EXCEL </s> -0.3010
-0.3010 EXPLORER </s> -0.3010
-0.3010 FACEBOOK </s> -0.3010
-0.3010 FILPKART </s> -0.3010
-0.3010 FLIPKART </s> -0.3010
-0.3010 GMAIL </s> -0.3010
-0.3010 GOOGLE </s> -0.3010
-0.3010 INSTAGRAM </s> -0.3010
-0.3010 INTRO </s> -0.3010
-0.3010 MAPS </s> -0.3010
-0.3010 MATH </s> -0.3010
-0.3010 MYACCOUNTGOOGLE </s> -0.3010
-0.3010 NHCE </s> -0.3010
-0.3010 NOTEPAD </s> -0.3010
-0.3010 OFFICE </s> -0.3010
-0.3010 ONENOTE </s> -0.3010
-0.3010 OPEN </s> -0.3010
-0.3010 OUTLOOK </s> -0.3010
-0.3010 PAINT </s> -0.3010
-0.3010 PHOTOS </s> -0.3010
-0.3010 PLAYER </s> -0.3010
-0.3010 POWERPOINT </s> -0.3010
-0.3010 PROMPT </s> -0.3010
-0.3010 PUBLISHER </s> -0.3010
-0.3010 RECORDER </s> -0.3010
-0.3010 RESTART </s> -0.3010
-0.3010 SETTINGS </s> -0.3010
-0.3010 SHUTDOWN </s> -0.3010
-0.3010 SITE </s> -0.3010
-0.3010 SKYPE </s> -0.3010
-0.3010 TASKMANAGER </s> -0.3010
-0.3010 UDEMY </s> -0.3010
-0.3010 WEATHER </s> -0.3010
-0.3010 WEBWHATSAPP </s> -0.3010
-0.3010 WORD </s> -0.3010
-0.3010 WORDPAD </s> -0.3010
-0.3010 YOUTUBE </s> -0.3010
-0.3010 ZOOM </s> -0.3010

\3-grams:
-0.3010 <s> ACCESS </s>
-0.3010 <s> ADOBE </s>
-0.3010 <s> AMAZON </s>
-0.3010 <s> BRAVE </s>
-1.9345 <s> CLOSE </s>
-1.9345 <s> CLOSE ACCESS
-1.9345 <s> CLOSE ADOBE
-1.9345 <s> CLOSE AMAZON
-1.9345 <s> CLOSE BRAVE
-1.9345 <s> CLOSE COMMAND
-1.9345 <s> CLOSE COMPLIER
-1.9345 <s> CLOSE CONTROLPANEL
-1.9345 <s> CLOSE CURSA
-1.9345 <s> CLOSE DRIVE
-1.9345 <s> CLOSE EDGE
-1.9345 <s> CLOSE EXCEL
-1.9345 <s> CLOSE EXPLORER
-1.9345 <s> CLOSE FACEBOOK
-1.9345 <s> CLOSE FILPKART
-1.9345 <s> CLOSE GMAIL
-1.9345 <s> CLOSE GOOGLE
-1.9345 <s> CLOSE INSTAGRAM
-1.9345 <s> CLOSE INTRO
-1.9345 <s> CLOSE MAPS
-1.9345 <s> CLOSE MATH
-1.9345 <s> CLOSE MYACCOUNTGOOGLE
-1.9345 <s> CLOSE NOTEPAD
-1.9345 <s> CLOSE OFFICE
-1.9345 <s> CLOSE ONENOTE
-1.9345 <s> CLOSE OUTLOOK
-1.9345 <s> CLOSE PAINT
-1.9345 <s> CLOSE PHOTOS
-1.9345 <s> CLOSE PLAYER
-1.9345 <s> CLOSE POWERPOINT
-1.9345 <s> CLOSE PUBLISHER
-1.9345 <s> CLOSE RECORDER
-1.9345 <s> CLOSE SETTINGS
-1.9345 <s> CLOSE SITE
-1.9345 <s> CLOSE SKYPE
-1.9345 <s> CLOSE TASKMANAGER
-1.9345 <s> CLOSE UDEMY
-1.9345 <s> CLOSE WEATHER
-1.9345 <s> CLOSE WEBWHATSAPP
-1.9345 <s> CLOSE WORD
-1.9345 <s> CLOSE WORDPAD
-1.9345 <s> CLOSE YOUTUBE
-1.9345 <s> CLOSE ZOOM
-0.3010 <s> COMMAND PROMPT
-0.3010 <s> COMPLIER </s>
-0.3010 <s> CONTROLPANEL </s>
-0.3010 <s> CURSA </s>
-0.3010 <s> DRIVE </s>
-0.3010 <s> EDGE </s>
-0.3010 <s> EXCEL </s>
-0.3010 <s> EXPLORER </s>
-0.3010 <s> FACEBOOK </s>
-0.3010 <s> FLIPKART </s>
-0.3010 <s> GMAIL </s>
-0.3010 <s> GOOGLE </s>
-0.3010 <s> INSTAGRAM </s>
-0.3010 <s> INTRO </s>
-0.3010 <s> MAPS </s>
-0.3010 <s> MATH </s>
-0.3010 <s> MYACCOUNTGOOGLE </s>
-0.3010 <s> NHCE </s>
-0.3010 <s> NOTEPAD </s>
-0.3010 <s> OFFICE </s>
-0.3010 <s> ONENOTE </s>
-0.3010 <s> OPEN </s>
-0.3010 <s> OUTLOOK </s>
-0.3010 <s> PAINT </s>
-0.3010 <s> PHOTOS </s>
-0.3010 <s> PLAYER </s>
-0.3010 <s> POWERPOINT </s>
-0.3010 <s> PUBLISHER </s>
-0.3010 <s> RECORDER </s>
-0.3010 <s> RESTART </s>
-0.3010 <s> SETTINGS </s>
-0.3010 <s> SHUTDOWN </s>
-0.3010 <s> SKYPE </s>
-0.3010 <s> TASKMANAGER </s>
-0.3010 <s> UDEMY </s>
-0.3010 <s> WEATHER </s>
-0.3010 <s> WEBWHATSAPP </s>
-0.3010 <s> WORD </s>
-0.3010 <s> WORDPAD </s>
-0.3010 <s> YOUTUBE </s>
-0.3010 <s> ZOOM </s>
-0.3010 CLOSE ACCESS </s>
-0.3010 CLOSE ADOBE </s>
-0.3010 CLOSE AMAZON </s>
-0.3010 CLOSE BRAVE </s>
-0.3010 CLOSE COMMAND PROMPT
-0.3010 CLOSE COMPLIER </s>
-0.3010 CLOSE CONTROLPANEL </s>
-0.3010 CLOSE CURSA </s>
-0.3010 CLOSE DRIVE </s>
-0.3010 CLOSE EDGE </s>
-0.3010 CLOSE EXCEL </s>
-0.3010 CLOSE EXPLORER </s>
-0.3010 CLOSE FACEBOOK </s>
-0.3010 CLOSE FILPKART </s>
-0.3010 CLOSE GMAIL </s>
-0.3010 CLOSE GOOGLE </s>
-0.3010 CLOSE INSTAGRAM </s>
-0.3010 CLOSE INTRO </s>
-0.3010 CLOSE MAPS </s>
-0.3010 CLOSE MATH </s>
-0.3010 CLOSE MYACCOUNTGOOGLE </s>
-0.3010 CLOSE NOTEPAD </s>
-0.3010 CLOSE OFFICE </s>
-0.3010 CLOSE ONENOTE </s>
-0.3010 CLOSE OUTLOOK </s>
-0.3010 CLOSE PAINT </s>
-0.3010 CLOSE PHOTOS </s>
-0.3010 CLOSE PLAYER </s>
-0.3010 CLOSE POWERPOINT </s>
-0.3010 CLOSE PUBLISHER </s>
-0.3010 CLOSE RECORDER </s>
-0.3010 CLOSE SETTINGS </s>
-0.3010 CLOSE SITE </s>
-0.3010 CLOSE SKYPE </s>
-0.3010 CLOSE TASKMANAGER </s>
-0.3010 CLOSE UDEMY </s>
-0.3010 CLOSE WEATHER </s>
-0.3010 CLOSE WEBWHATSAPP </s>
-0.3010 CLOSE WORD </s>
-0.3010 CLOSE WORDPAD </s>
-0.3010 CLOSE YOUTUBE </s>
-0.3010 CLOSE ZOOM </s>
-0.3010 COMMAND PROMPT </s>

\end\
